svm_type c_svc
kernel_type rbf
gamma 1.220703125E-4
nr_class 2
total_sv 66
rho -1.0573739007084886
label -1 1
nr_sv 49 17
SV
18.03709302907829 0:0.663382354613548 2:0.6807714509105529 4:2.2966471746449537 5:0.2447615774805299 6:0.2629058296039335 14:3.462715618603973 15:2.947891602305924 17:3.194124365569416 33:1.9722418953040202 40:4.192735925435675 61:2.356532006275726 90:2.497437459352964 94:2.5173716742537806 
114.41428124363895 6:0.2629058296039335 13:1.3087118844477212 14:3.462715618603973 18:1.9839837131807034 
8.713375656377355 0:0.47384453900967716 1:1.0437910253825582 5:0.2447615774805299 6:0.2629058296039335 18:3.967967426361407 33:1.9722418953040202 56:2.0789002696774466 82:2.362262680984711 89:4.904827555958017 91:2.5445842377786656 94:2.5173716742537806 
3.1465366336512877 0:0.09476890780193543 1:0.5218955126912791 3:3.637107781464592 5:0.2447615774805299 6:0.2629058296039335 10:1.0474272838469652 14:1.7313578093019866 27:1.9683583952776227 35:1.9228960212008652 52:2.024149754906038 60:7.227990575528089 72:2.4214515523750415 81:2.2638226081714583 89:4.904827555958017 
1.8994500040795594 0:0.37907563120774174 1:2.0875820507651164 2:1.3615429018211058 3:1.818553890732296 5:0.2447615774805299 6:0.2629058296039335 8:14.786851465168587 9:0.8543611877700334 10:2.0948545676939303 19:1.5323565633093765 26:3.575953406602989 29:1.7529969844054676 47:2.2031979863550237 53:3.021508309868975 61:2.356532006275726 77:7.825989283389564 84:2.4214515523750415 88:2.4778928632799935 95:2.4778928632799935 
128.0 82:2.362262680984711 
4.473603536489317 0:0.663382354613548 1:1.5656865380738374 2:0.6807714509105529 5:0.2447615774805299 14:3.462715618603973 19:1.5323565633093765 23:1.7101769872225394 24:1.7042068202360356 29:7.01198793762187 33:1.9722418953040202 37:3.8606619993767666 40:6.289103888153512 57:2.1553419651773886 61:4.713064012551452 65:2.2638226081714583 71:4.466101899009409 73:2.4524137779790083 78:12.360361795611254 82:9.449050723938845 90:2.497437459352964 94:2.5173716742537806 
1.6821207389342272 0:0.18953781560387087 1:0.5218955126912791 4:1.531098116429969 7:3.8129602751490568 14:1.7313578093019866 15:2.947891602305924 21:1.8208744068085536 36:1.9303309996883833 77:2.608663094463188 79:4.9687307555712215 87:2.198308001060832 99:2.5796755575899355 
128.0 7:0.9532400687872642 
41.72057652149615 0:0.18953781560387087 2:0.6807714509105529 3:0.909276945366148 5:0.2447615774805299 6:0.2629058296039335 12:2.7888975921701102 24:1.7042068202360356 26:7.151906813205978 28:1.6719932002523807 89:2.4524137779790083 
6.924758661904942 14:1.7313578093019866 59:2.213050282798035 
8.359635076179883 0:0.18953781560387087 6:0.2629058296039335 7:0.9532400687872642 10:1.0474272838469652 14:3.462715618603973 17:1.597062182784708 19:1.5323565633093765 27:1.9683583952776227 37:1.9303309996883833 44:2.183779900497922 67:2.5868440470685483 68:2.2955713064860386 73:2.4524137779790083 81:2.2638226081714583 87:2.198308001060832 99:2.5796755575899355 
44.30485025552433 2:0.6807714509105529 3:0.909276945366148 6:0.2629058296039335 82:2.362262680984711 
23.214050089066806 0:0.09476890780193543 1:1.0437910253825582 5:0.2447615774805299 6:0.2629058296039335 7:1.9064801375745284 20:8.055108219743286 21:3.6417488136171072 25:1.7687453413736067 33:1.9722418953040202 42:2.223000613651203 52:2.024149754906038 59:6.639150848394106 
3.3440627841447563 0:0.18953781560387087 1:0.5218955126912791 5:0.2447615774805299 6:0.2629058296039335 9:0.8543611877700334 10:1.0474272838469652 14:1.7313578093019866 15:5.895783204611848 23:1.7101769872225394 40:4.192735925435675 49:1.8758710825560023 62:2.6771308937406486 95:4.955785726559987 98:2.733826237417194 
8.60865342471216 0:0.18953781560387087 1:0.5218955126912791 2:1.3615429018211058 5:0.2447615774805299 6:0.2629058296039335 14:3.462715618603973 17:1.597062182784708 28:1.6719932002523807 34:3.8907377541058477 44:2.183779900497922 46:1.995865041067456 62:2.6771308937406486 92:2.4461441649654128 
22.70601184511257 0:0.09476890780193543 6:0.2629058296039335 9:1.708722375540067 14:3.462715618603973 29:1.7529969844054676 34:3.8907377541058477 91:2.5445842377786656 99:2.5796755575899355 
25.920041393713696 8:1.4786851465168587 
2.130708776658018 0:0.18953781560387087 1:0.5218955126912791 4:1.531098116429969 6:0.2629058296039335 15:2.947891602305924 25:1.7687453413736067 26:1.7879767033014946 27:1.9683583952776227 29:1.7529969844054676 30:1.7912181972256656 35:1.9228960212008652 40:2.0963679627178373 47:2.2031979863550237 52:2.024149754906038 61:2.356532006275726 77:2.608663094463188 82:2.362262680984711 85:4.942923945899405 87:2.198308001060832 
8.80958671826074 0:0.18953781560387087 2:0.6807714509105529 4:0.7655490582149845 5:0.2447615774805299 6:0.2629058296039335 9:0.8543611877700334 10:1.0474272838469652 15:1.473945801152962 17:1.597062182784708 26:1.7879767033014946 30:1.7912181972256656 34:1.9453688770529238 36:1.9303309996883833 38:1.8653261693793874 52:4.048299509812076 65:2.2638226081714583 66:2.253459821135912 89:2.4524137779790083 
0.20673785761708105 0:0.37907563120774174 1:0.5218955126912791 3:11.820600289759923 4:1.531098116429969 6:0.2629058296039335 7:1.9064801375745284 8:11.82948117213487 19:7.661782816546882 22:6.937682395330129 25:3.5374906827472135 30:1.7912181972256656 35:1.9228960212008652 36:1.9303309996883833 38:1.8653261693793874 39:15.120849587022994 44:2.183779900497922 49:1.8758710825560023 50:2.0323802540425535 61:7.069596018827177 66:2.253459821135912 69:6.7758833738830635 72:2.4214515523750415 73:2.4524137779790083 85:2.4714619729497027 87:2.198308001060832 89:2.4524137779790083 91:5.089168475557331 94:10.069486697015122 96:4.879827230429554 
8.234191185336952 0:0.37907563120774174 1:0.5218955126912791 2:0.6807714509105529 3:0.909276945366148 4:0.7655490582149845 5:0.2447615774805299 6:0.2629058296039335 8:5.914740586067435 9:0.8543611877700334 13:1.3087118844477212 24:1.7042068202360356 26:3.575953406602989 28:1.6719932002523807 31:2.188599186933871 33:1.9722418953040202 35:1.9228960212008652 39:1.8901061983778742 48:2.1414206266587805 60:2.4093301918426966 64:2.1096719283442 68:6.886713919458115 75:2.725527434602499 83:2.2280131554747475 89:2.4524137779790083 94:2.5173716742537806 97:2.2586277912943546 
0.8935823582934519 0:0.09476890780193543 1:0.5218955126912791 2:2.0423143527316587 5:0.2447615774805299 6:0.2629058296039335 9:2.5630835633101006 14:3.462715618603973 15:2.947891602305924 17:1.597062182784708 39:1.8901061983778742 45:2.0406790568572486 
29.52892368195634 0:0.09476890780193543 15:1.473945801152962 
128.0 0:0.09476890780193543 1:0.5218955126912791 7:0.9532400687872642 
39.93660461547235 0:0.09476890780193543 5:0.2447615774805299 6:0.2629058296039335 10:1.0474272838469652 12:1.3944487960850551 32:2.0038650837345324 50:2.0323802540425535 89:2.4524137779790083 
22.524528188034708 0:0.47384453900967716 1:0.5218955126912791 2:3.4038572545527646 4:4.593294349289907 5:0.2447615774805299 6:0.2629058296039335 7:1.9064801375745284 10:1.0474272838469652 15:2.947891602305924 17:1.597062182784708 22:1.7344205988325323 25:5.30623602412082 26:3.575953406602989 35:3.8457920424017304 41:4.1065156781282175 44:2.183779900497922 46:1.995865041067456 54:6.084769610576075 66:4.506919642271824 80:2.4778928632799935 94:5.034743348507561 
0.5289409139756197 0:0.09476890780193543 1:0.5218955126912791 3:0.909276945366148 4:0.7655490582149845 5:0.2447615774805299 6:0.2629058296039335 9:0.8543611877700334 12:1.3944487960850551 22:5.203261796497597 51:2.0490473065277652 81:2.2638226081714583 86:2.7421944870877106 89:4.904827555958017 90:2.497437459352964 
7.202325584224164 0:0.2843067234058063 1:0.5218955126912791 3:1.818553890732296 5:0.2447615774805299 6:0.2629058296039335 7:0.9532400687872642 8:4.436055439550576 9:1.708722375540067 12:2.7888975921701102 16:1.2771510795355039 19:1.5323565633093765 22:1.7344205988325323 24:3.4084136404720713 29:1.7529969844054676 30:3.582436394451331 31:4.377198373867742 32:2.0038650837345324 50:2.0323802540425535 66:2.253459821135912 89:7.357241333937025 
13.804024584710623 0:0.2843067234058063 1:0.5218955126912791 4:0.7655490582149845 6:0.2629058296039335 7:1.9064801375745284 10:2.0948545676939303 14:6.925431237207946 16:2.5543021590710078 17:1.597062182784708 23:1.7101769872225394 25:1.7687453413736067 28:3.3439864005047615 38:1.8653261693793874 42:4.446001227302406 55:2.2638226081714583 56:2.0789002696774466 61:4.713064012551452 77:2.608663094463188 87:2.198308001060832 
0.3238599038906396 0:0.7581512624154835 1:0.5218955126912791 2:1.3615429018211058 3:0.909276945366148 4:1.531098116429969 7:0.9532400687872642 9:0.8543611877700334 20:5.370072146495524 23:5.130530961667619 25:1.7687453413736067 26:1.7879767033014946 29:1.7529969844054676 36:3.8606619993767666 37:3.8606619993767666 47:4.4063959727100475 49:1.8758710825560023 58:2.284876017369291 73:4.904827555958017 74:2.4524137779790083 81:2.2638226081714583 85:2.4714619729497027 87:2.198308001060832 92:2.4461441649654128 94:2.5173716742537806 95:2.4778928632799935 99:5.159351115179871 
3.4862615246049034 0:0.09476890780193543 1:1.5656865380738374 2:1.3615429018211058 3:2.727830836098444 5:0.2447615774805299 6:0.2629058296039335 7:1.9064801375745284 9:0.8543611877700334 15:5.895783204611848 46:1.995865041067456 69:2.2586277912943546 
37.02371057240577 6:0.2629058296039335 14:1.7313578093019866 67:2.5868440470685483 
36.44734081930124 0:0.09476890780193543 1:1.5656865380738374 2:1.3615429018211058 5:0.2447615774805299 6:0.2629058296039335 7:1.9064801375745284 14:5.19407342790596 16:1.2771510795355039 21:5.462623220425661 26:1.7879767033014946 30:1.7912181972256656 46:1.995865041067456 52:2.024149754906038 77:5.217326188926376 80:2.4778928632799935 92:2.4461441649654128 
16.426392800955977 0:0.18953781560387087 1:1.0437910253825582 2:2.7230858036422116 4:0.7655490582149845 6:0.2629058296039335 7:0.9532400687872642 13:1.3087118844477212 14:5.19407342790596 16:1.2771510795355039 17:1.597062182784708 23:1.7101769872225394 25:3.5374906827472135 40:2.0963679627178373 43:1.8723437420380338 44:2.183779900497922 46:1.995865041067456 47:2.2031979863550237 58:2.284876017369291 87:2.198308001060832 96:2.439913615214777 
92.74590422392907 19:1.5323565633093765 
0.39152106716379426 0:0.09476890780193543 4:0.7655490582149845 5:0.2447615774805299 6:0.2629058296039335 10:1.0474272838469652 14:3.462715618603973 29:3.505993968810935 71:2.2330509495047046 
10.204969469854667 0:0.2843067234058063 1:1.5656865380738374 4:1.531098116429969 6:0.2629058296039335 13:1.3087118844477212 14:12.119504665113906 17:6.388248731138832 19:1.5323565633093765 29:1.7529969844054676 30:1.7912181972256656 33:1.9722418953040202 45:2.0406790568572486 55:4.527645216342917 68:4.591142612972077 75:5.451054869204998 87:2.198308001060832 88:2.4778928632799935 
5.575744404779675 0:0.18953781560387087 2:1.3615429018211058 4:1.531098116429969 5:0.2447615774805299 6:0.2629058296039335 9:0.8543611877700334 25:5.30623602412082 80:2.4778928632799935 96:2.439913615214777 
69.61742239180778 15:1.473945801152962 
1.9699210354599686 0:0.37907563120774174 1:1.0437910253825582 2:0.6807714509105529 4:2.2966471746449537 5:0.2447615774805299 6:0.2629058296039335 7:0.9532400687872642 8:2.9573702930337173 9:0.8543611877700334 19:1.5323565633093765 25:3.5374906827472135 30:1.7912181972256656 45:2.0406790568572486 46:1.995865041067456 50:2.0323802540425535 96:2.439913615214777 
4.897786138704912 0:0.2843067234058063 4:0.7655490582149845 5:0.2447615774805299 6:0.2629058296039335 14:8.656789046509934 18:1.9839837131807034 33:1.9722418953040202 34:1.9453688770529238 54:2.0282565368586916 71:2.2330509495047046 74:2.4524137779790083 98:8.201478712251582 
32.007362754425614 68:2.2955713064860386 70:2.300962155120915 
0.9641041221879999 4:2.2966471746449537 5:0.2447615774805299 6:0.2629058296039335 7:0.9532400687872642 8:1.4786851465168587 10:1.0474272838469652 14:10.38814685581192 15:1.473945801152962 17:3.194124365569416 19:1.5323565633093765 25:1.7687453413736067 33:3.9444837906080403 36:1.9303309996883833 42:2.223000613651203 48:2.1414206266587805 55:4.527645216342917 56:2.0789002696774466 57:2.1553419651773886 60:2.4093301918426966 67:10.347376188274193 70:2.300962155120915 79:4.9687307555712215 82:7.086788042954133 
25.853192093018205 0:0.09476890780193543 53:3.021508309868975 
128.0 0:0.09476890780193543 8:1.4786851465168587 
45.30021051222216 0:0.18953781560387087 1:2.0875820507651164 2:0.6807714509105529 3:0.909276945366148 6:0.2629058296039335 7:0.9532400687872642 14:3.462715618603973 16:1.2771510795355039 27:1.9683583952776227 44:2.183779900497922 45:2.0406790568572486 57:2.1553419651773886 61:4.713064012551452 66:2.253459821135912 74:2.4524137779790083 84:2.4214515523750415 87:2.198308001060832 
12.240705709432808 0:0.09476890780193543 16:1.2771510795355039 61:2.356532006275726 93:2.6771308937406486 
39.204660189407505 0:0.09476890780193543 1:1.0437910253825582 5:0.2447615774805299 6:0.2629058296039335 7:0.9532400687872642 10:2.0948545676939303 23:1.7101769872225394 46:1.995865041067456 66:2.253459821135912 72:2.4214515523750415 94:2.5173716742537806 
-128.0 8:1.4786851465168587 11:2.1276904338468783 
-128.0 11:2.1276904338468783 14:1.7313578093019866 
-7.579671301676826 0:0.37907563120774174 1:0.5218955126912791 2:0.6807714509105529 5:0.2447615774805299 10:1.0474272838469652 11:2.1276904338468783 12:1.3944487960850551 14:1.7313578093019866 17:1.597062182784708 19:1.5323565633093765 20:8.055108219743286 60:2.4093301918426966 81:2.2638226081714583 92:2.4461441649654128 
-128.0 11:2.1276904338468783 
-111.9919134677651 0:0.09476890780193543 1:0.5218955126912791 4:0.7655490582149845 5:0.2447615774805299 7:0.9532400687872642 11:2.1276904338468783 15:2.947891602305924 20:2.685036073247762 26:1.7879767033014946 52:2.024149754906038 77:2.608663094463188 82:2.362262680984711 89:2.4524137779790083 
-107.18590264459131 0:0.09476890780193543 5:0.2447615774805299 11:2.1276904338468783 14:1.7313578093019866 44:2.183779900497922 46:3.991730082134912 82:2.362262680984711 89:2.4524137779790083 
-128.0 8:1.4786851465168587 11:2.1276904338468783 
-46.29359485682107 0:0.09476890780193543 5:0.2447615774805299 7:11.438880825447171 11:2.1276904338468783 25:5.30623602412082 34:1.9453688770529238 80:2.4778928632799935 
-128.0 11:2.1276904338468783 14:1.7313578093019866 
-128.0 11:2.1276904338468783 12:1.3944487960850551 14:1.7313578093019866 
-3.6559904871982085 0:0.18953781560387087 1:0.5218955126912791 2:2.7230858036422116 5:0.2447615774805299 11:2.1276904338468783 14:5.19407342790596 17:4.7911865483541245 20:8.055108219743286 23:3.420353974445079 25:1.7687453413736067 30:1.7912181972256656 50:2.0323802540425535 60:2.4093301918426966 81:2.2638226081714583 91:2.5445842377786656 96:2.439913615214777 
-128.0 0:0.2843067234058063 2:2.0423143527316587 5:0.2447615774805299 11:2.1276904338468783 14:5.19407342790596 61:2.356532006275726 68:2.2955713064860386 
-128.0 11:2.1276904338468783 
-26.697994240638177 0:0.37907563120774174 1:0.5218955126912791 5:0.2447615774805299 11:2.1276904338468783 13:1.3087118844477212 14:3.462715618603973 15:1.473945801152962 20:2.685036073247762 26:3.575953406602989 30:1.7912181972256656 80:2.4778928632799935 94:2.5173716742537806 
-34.004896221347195 0:0.18953781560387087 1:1.5656865380738374 5:0.2447615774805299 11:2.1276904338468783 17:1.597062182784708 19:1.5323565633093765 25:3.5374906827472135 26:7.151906813205978 30:1.7912181972256656 33:1.9722418953040202 35:1.9228960212008652 40:2.0963679627178373 53:3.021508309868975 57:2.1553419651773886 61:7.069596018827177 66:2.253459821135912 82:2.362262680984711 94:2.5173716742537806 99:2.5796755575899355 
-1.102180566526478 0:0.09476890780193543 1:0.5218955126912791 5:0.2447615774805299 11:2.1276904338468783 14:3.462715618603973 17:4.7911865483541245 20:5.370072146495524 25:1.7687453413736067 80:9.911571453119974 
-55.438181305632746 0:0.663382354613548 1:3.131373076147675 7:0.9532400687872642 11:2.1276904338468783 19:3.064713126618753 35:1.9228960212008652 37:1.9303309996883833 50:2.0323802540425535 56:2.0789002696774466 66:6.760379463407736 87:2.198308001060832 94:5.034743348507561 95:2.4778928632799935 
